digraph Tree {
node [shape=box, style="filled, rounded", color="black", fontname=helvetica] ;
edge [fontname=helvetica] ;
0 [label="petal width (cm) <= 0.8\ngini = 0.66\nsamples = 93\nvalue = [47, 55, 48]\nclass = versicolor", fillcolor="#f1fdf6"] ;
1 [label="gini = 0.0\nsamples = 29\nvalue = [47, 0, 0]\nclass = setosa", fillcolor="#e58139"] ;
0 -> 1 [labeldistance=2.5, labelangle=45, headlabel="True"] ;
2 [label="petal length (cm) <= 4.85\ngini = 0.5\nsamples = 64\nvalue = [0, 55, 48]\nclass = versicolor", fillcolor="#e6fcef"] ;
0 -> 2 [labeldistance=2.5, labelangle=-45, headlabel="False"] ;
3 [label="petal length (cm) <= 4.75\ngini = 0.04\nsamples = 35\nvalue = [0, 50, 1]\nclass = versicolor", fillcolor="#3de684"] ;
2 -> 3 ;
4 [label="gini = 0.0\nsamples = 32\nvalue = [0, 46, 0]\nclass = versicolor", fillcolor="#39e581"] ;
3 -> 4 ;
5 [label="sepal width (cm) <= 3.0\ngini = 0.32\nsamples = 3\nvalue = [0, 4, 1]\nclass = versicolor", fillcolor="#6aeca0"] ;
3 -> 5 ;
6 [label="petal width (cm) <= 1.6\ngini = 0.44\nsamples = 2\nvalue = [0, 2, 1]\nclass = versicolor", fillcolor="#9cf2c0"] ;
5 -> 6 ;
7 [label="gini = 0.0\nsamples = 1\nvalue = [0, 2, 0]\nclass = versicolor", fillcolor="#39e581"] ;
6 -> 7 ;
8 [label="gini = 0.0\nsamples = 1\nvalue = [0, 0, 1]\nclass = virginica", fillcolor="#8139e5"] ;
6 -> 8 ;
9 [label="gini = 0.0\nsamples = 1\nvalue = [0, 2, 0]\nclass = versicolor", fillcolor="#39e581"] ;
5 -> 9 ;
10 [label="petal length (cm) <= 5.2\ngini = 0.17\nsamples = 29\nvalue = [0, 5, 47]\nclass = virginica", fillcolor="#8e4ee8"] ;
2 -> 10 ;
11 [label="petal width (cm) <= 1.75\ngini = 0.46\nsamples = 9\nvalue = [0, 5, 9]\nclass = virginica", fillcolor="#c7a7f3"] ;
10 -> 11 ;
12 [label="gini = 0.0\nsamples = 4\nvalue = [0, 5, 0]\nclass = versicolor", fillcolor="#39e581"] ;
11 -> 12 ;
13 [label="gini = 0.0\nsamples = 5\nvalue = [0, 0, 9]\nclass = virginica", fillcolor="#8139e5"] ;
11 -> 13 ;
14 [label="gini = 0.0\nsamples = 20\nvalue = [0, 0, 38]\nclass = virginica", fillcolor="#8139e5"] ;
10 -> 14 ;
}